// AUTO-GENERATED MACHINE LEARNING MODEL (D&D 5.5e)
// Features: [party_size, party_level, enemy_count, enemy_cr, action_economy]

function predictDanger(input) {
    var var0;
    if (input[4] <= 0.9166666567325592) {
        if (input[1] <= 8.5) {
            if (input[3] <= 8.965681552886963) {
                if (input[1] <= 2.5) {
                    if (input[4] <= 0.36666667461395264) {
                        var0 = 0.3884936187080252;
                    } else {
                        var0 = 0.8460966181330231;
                    }
                } else {
                    if (input[3] <= 4.738777160644531) {
                        var0 = 0.11272506550588295;
                    } else {
                        var0 = 0.42107510483960026;
                    }
                }
            } else {
                if (input[4] <= 0.2916666716337204) {
                    if (input[1] <= 3.5) {
                        var0 = 0.8812888106745976;
                    } else {
                        var0 = 0.36158196710026547;
                    }
                } else {
                    if (input[1] <= 5.5) {
                        var0 = 0.9852233682521955;
                    } else {
                        var0 = 0.8000552305861681;
                    }
                }
            }
        } else {
            if (input[3] <= 11.25729513168335) {
                if (input[4] <= 0.45000000298023224) {
                    if (input[3] <= 5.535856008529663) {
                        var0 = 0.011091577320365524;
                    } else {
                        var0 = 0.05588423681115054;
                    }
                } else {
                    if (input[3] <= 7.093049049377441) {
                        var0 = 0.09362687979130295;
                    } else {
                        var0 = 0.2860995157800616;
                    }
                }
            } else {
                if (input[4] <= 0.45000000298023224) {
                    if (input[4] <= 0.2916666716337204) {
                        var0 = 0.10655516558693252;
                    } else {
                        var0 = 0.28019139703462725;
                    }
                } else {
                    if (input[1] <= 14.5) {
                        var0 = 0.6834423253109306;
                    } else {
                        var0 = 0.42239428585414757;
                    }
                }
            }
        }
    } else {
        if (input[3] <= 4.076777696609497) {
            if (input[4] <= 2.3666666746139526) {
                if (input[1] <= 3.5) {
                    if (input[3] <= 1.3582200407981873) {
                        var0 = 0.5528624121748006;
                    } else {
                        var0 = 0.9358862231020988;
                    }
                } else {
                    if (input[3] <= 3.1444125175476074) {
                        var0 = 0.25012679494274903;
                    } else {
                        var0 = 0.500897879297041;
                    }
                }
            } else {
                if (input[1] <= 10.5) {
                    if (input[3] <= 1.7243972420692444) {
                        var0 = 0.7200689471740397;
                    } else {
                        var0 = 0.9696416675004583;
                    }
                } else {
                    if (input[3] <= 2.867871403694153) {
                        var0 = 0.4694525282681301;
                    } else {
                        var0 = 0.78250346419724;
                    }
                }
            }
        } else {
            if (input[3] <= 7.346656560897827) {
                if (input[1] <= 9.5) {
                    if (input[4] <= 1.2916666865348816) {
                        var0 = 0.8091022026091226;
                    } else {
                        var0 = 0.9899642539958886;
                    }
                } else {
                    if (input[4] <= 1.8166666626930237) {
                        var0 = 0.415787748114439;
                    } else {
                        var0 = 0.8228479021077842;
                    }
                }
            } else {
                if (input[4] <= 1.2916666865348816) {
                    if (input[1] <= 14.5) {
                        var0 = 0.9566744219787053;
                    } else {
                        var0 = 0.7079840482328287;
                    }
                } else {
                    if (input[3] <= 10.933571338653564) {
                        var0 = 0.9523706682899;
                    } else {
                        var0 = 0.997202745056149;
                    }
                }
            }
        }
    }
    return var0;
}


export { predictDanger };
