// AUTO-GENERATED MACHINE LEARNING MODEL (D&D 5.5e)
// Features: [party_size, party_level, enemy_count, enemy_cr, action_economy]

function predictDanger(input) {
    var var0;
    if (input[3] <= 2.5255290269851685) {
        if (input[4] <= 1.225000023841858) {
            if (input[1] <= 4.5) {
                if (input[4] <= 0.36666667461395264) {
                    if (input[1] <= 1.5) {
                        if (input[4] <= 0.22500000149011612) {
                            var0 = 0.32296407478625755;
                        } else {
                            if (input[3] <= 0.9810810387134552) {
                                var0 = 0.4352158041780378;
                            } else {
                                if (input[0] <= 5.0) {
                                    var0 = 0.8292211395252299;
                                } else {
                                    var0 = 0.7943815779444356;
                                }
                            }
                        }
                    } else {
                        if (input[3] <= 0.8270686864852905) {
                            if (input[1] <= 2.5) {
                                if (input[3] <= 0.6086914539337158) {
                                    var0 = 0.06644416919818977;
                                } else {
                                    var0 = 0.07171734022444795;
                                }
                            } else {
                                var0 = 0.0;
                            }
                        } else {
                            if (input[1] <= 2.5) {
                                if (input[3] <= 0.9909299910068512) {
                                    var0 = 0.19373048612485594;
                                } else {
                                    var0 = 0.32634071890911737;
                                }
                            } else {
                                if (input[3] <= 1.9463882446289062) {
                                    var0 = 0.0792143649672044;
                                } else {
                                    var0 = 0.23717445856211908;
                                }
                            }
                        }
                    }
                } else {
                    if (input[3] <= 1.2000436186790466) {
                        if (input[1] <= 1.5) {
                            if (input[3] <= 0.43889591097831726) {
                                if (input[2] <= 5.0) {
                                    var0 = 0.4743752450064148;
                                } else {
                                    var0 = 0.28759132047120295;
                                }
                            } else {
                                if (input[0] <= 5.0) {
                                    var0 = 0.8941795479653419;
                                } else {
                                    var0 = 1.0;
                                }
                            }
                        } else {
                            if (input[4] <= 1.100000023841858) {
                                if (input[3] <= 0.38034963607788086) {
                                    var0 = 0.1436198631157582;
                                } else {
                                    var0 = 0.2886459363780077;
                                }
                            } else {
                                if (input[3] <= 0.9708264768123627) {
                                    var0 = 0.7629902593148278;
                                } else {
                                    var0 = 0.8724442358870171;
                                }
                            }
                        }
                    } else {
                        if (input[4] <= 0.675000011920929) {
                            if (input[1] <= 2.5) {
                                if (input[3] <= 2.074170708656311) {
                                    var0 = 1.0;
                                } else {
                                    var0 = 0.9589374297384551;
                                }
                            } else {
                                if (input[0] <= 4.5) {
                                    var0 = 0.39316051509015326;
                                } else {
                                    var0 = 0.6083659800246829;
                                }
                            }
                        } else {
                            if (input[1] <= 3.5) {
                                if (input[3] <= 1.2613638043403625) {
                                    var0 = 0.9105193712627443;
                                } else {
                                    var0 = 1.0;
                                }
                            } else {
                                if (input[3] <= 1.733994960784912) {
                                    var0 = 0.8942965711676333;
                                } else {
                                    var0 = 0.9663523652824942;
                                }
                            }
                        }
                    }
                }
            } else {
                if (input[4] <= 0.550000011920929) {
                    if (input[3] <= 1.7395424842834473) {
                        if (input[3] <= 0.7750503122806549) {
                            if (input[1] <= 5.5) {
                                var0 = 0.10134775085723702;
                            } else {
                                if (input[2] <= 2.5) {
                                    var0 = 0.007071798679360208;
                                } else {
                                    var0 = 0.04293186876500683;
                                }
                            }
                        } else {
                            if (input[1] <= 14.5) {
                                if (input[4] <= 0.2916666716337204) {
                                    var0 = 0.03205915925933392;
                                } else {
                                    var0 = 0.09599797455079541;
                                }
                            } else {
                                if (input[0] <= 4.5) {
                                    var0 = 0.004155261822103744;
                                } else {
                                    var0 = 0.0385232593694609;
                                }
                            }
                        }
                    } else {
                        if (input[4] <= 0.45000000298023224) {
                            if (input[1] <= 16.5) {
                                if (input[4] <= 0.22500000149011612) {
                                    var0 = 0.04562799215615484;
                                } else {
                                    var0 = 0.10422946216703757;
                                }
                            } else {
                                if (input[3] <= 2.105461835861206) {
                                    var0 = 0.0522553887178237;
                                } else {
                                    var0 = 0.023702368468345867;
                                }
                            }
                        } else {
                            if (input[1] <= 8.5) {
                                if (input[3] <= 2.2952810525894165) {
                                    var0 = 0.3719255534826825;
                                } else {
                                    var0 = 0.27336034609989734;
                                }
                            } else {
                                if (input[3] <= 2.212110757827759) {
                                    var0 = 0.08421145266471794;
                                } else {
                                    var0 = 0.15585151080257598;
                                }
                            }
                        }
                    }
                } else {
                    if (input[3] <= 1.327852189540863) {
                        if (input[3] <= 0.7623251974582672) {
                            if (input[3] <= 0.44460125267505646) {
                                if (input[1] <= 5.5) {
                                    var0 = 0.10539696609134447;
                                } else {
                                    var0 = 0.026830758057886216;
                                }
                            } else {
                                if (input[3] <= 0.7253706753253937) {
                                    var0 = 0.06625806940665822;
                                } else {
                                    var0 = 0.010864675890660806;
                                }
                            }
                        } else {
                            if (input[1] <= 9.5) {
                                if (input[3] <= 0.7873207330703735) {
                                    var0 = 0.4424249031591505;
                                } else {
                                    var0 = 0.22370600723328465;
                                }
                            } else {
                                if (input[1] <= 16.5) {
                                    var0 = 0.15331918899309757;
                                } else {
                                    var0 = 0.06393588469698992;
                                }
                            }
                        }
                    } else {
                        if (input[1] <= 10.5) {
                            if (input[4] <= 0.7750000059604645) {
                                if (input[1] <= 9.0) {
                                    var0 = 0.38043466218976413;
                                } else {
                                    var0 = 0.24645159988504153;
                                }
                            } else {
                                if (input[3] <= 2.155533790588379) {
                                    var0 = 0.4687727821285629;
                                } else {
                                    var0 = 0.604708793868296;
                                }
                            }
                        } else {
                            if (input[3] <= 2.256271481513977) {
                                if (input[2] <= 5.5) {
                                    var0 = 0.1341136514944495;
                                } else {
                                    var0 = 0.23937089283564758;
                                }
                            } else {
                                if (input[1] <= 13.5) {
                                    var0 = 0.3289548335588709;
                                } else {
                                    var0 = 0.22003989479729025;
                                }
                            }
                        }
                    }
                }
            }
        } else {
            if (input[1] <= 8.5) {
                if (input[3] <= 0.8104928731918335) {
                    if (input[1] <= 3.5) {
                        if (input[3] <= 0.16167278587818146) {
                            if (input[4] <= 2.7333333492279053) {
                                var0 = 0.22353307297957783;
                            } else {
                                var0 = 0.6069287418574911;
                            }
                        } else {
                            if (input[3] <= 0.29301977157592773) {
                                if (input[4] <= 3.033333420753479) {
                                    var0 = 1.0;
                                } else {
                                    var0 = 0.7462122838516304;
                                }
                            } else {
                                if (input[2] <= 7.0) {
                                    var0 = 0.9421388081121427;
                                } else {
                                    var0 = 1.0;
                                }
                            }
                        }
                    } else {
                        if (input[2] <= 12.5) {
                            if (input[3] <= 0.31122055649757385) {
                                if (input[4] <= 2.666666626930237) {
                                    var0 = 0.1004862333178836;
                                } else {
                                    var0 = 0.34141570343851524;
                                }
                            } else {
                                if (input[4] <= 2.3000000715255737) {
                                    var0 = 0.3319899434822413;
                                } else {
                                    var0 = 0.4992203275054415;
                                }
                            }
                        } else {
                            if (input[3] <= 0.3604913502931595) {
                                if (input[3] <= 0.21176161617040634) {
                                    var0 = 0.21895321525059697;
                                } else {
                                    var0 = 0.251076821483023;
                                }
                            } else {
                                if (input[1] <= 5.5) {
                                    var0 = 0.9446089929102011;
                                } else {
                                    var0 = 0.7072844572123002;
                                }
                            }
                        }
                    }
                } else {
                    if (input[1] <= 6.5) {
                        if (input[4] <= 1.2916666865348816) {
                            if (input[1] <= 5.0) {
                                var0 = 1.0;
                            } else {
                                if (input[3] <= 2.0336909890174866) {
                                    var0 = 0.6239236511151403;
                                } else {
                                    var0 = 1.0;
                                }
                            }
                        } else {
                            if (input[4] <= 1.7916666865348816) {
                                if (input[1] <= 5.5) {
                                    var0 = 0.997588755523399;
                                } else {
                                    var0 = 0.913176578785377;
                                }
                            } else {
                                var0 = 1.0;
                            }
                        }
                    } else {
                        if (input[4] <= 1.675000011920929) {
                            if (input[3] <= 1.4177453517913818) {
                                if (input[2] <= 8.5) {
                                    var0 = 0.42624698662237176;
                                } else {
                                    var0 = 0.5270966543946263;
                                }
                            } else {
                                if (input[0] <= 4.5) {
                                    var0 = 0.6615488899183012;
                                } else {
                                    var0 = 0.7783900942444894;
                                }
                            }
                        } else {
                            if (input[4] <= 2.083333373069763) {
                                if (input[1] <= 7.5) {
                                    var0 = 0.9576616770929023;
                                } else {
                                    var0 = 0.7755586973991663;
                                }
                            } else {
                                if (input[3] <= 1.2158823609352112) {
                                    var0 = 0.9251183201816525;
                                } else {
                                    var0 = 1.0;
                                }
                            }
                        }
                    }
                }
            } else {
                if (input[3] <= 1.2097945809364319) {
                    if (input[3] <= 0.6931712925434113) {
                        if (input[3] <= 0.5340337753295898) {
                            if (input[3] <= 0.21648334711790085) {
                                if (input[1] <= 15.5) {
                                    var0 = 0.05766522175702389;
                                } else {
                                    var0 = 0.0009580619209199892;
                                }
                            } else {
                                if (input[1] <= 12.5) {
                                    var0 = 0.19695701806059251;
                                } else {
                                    var0 = 0.09917823417720059;
                                }
                            }
                        } else {
                            if (input[2] <= 9.5) {
                                if (input[1] <= 12.5) {
                                    var0 = 0.18024267919112197;
                                } else {
                                    var0 = 0.10296606818583953;
                                }
                            } else {
                                if (input[1] <= 17.0) {
                                    var0 = 0.293398060953091;
                                } else {
                                    var0 = 0.16661090734057088;
                                }
                            }
                        }
                    } else {
                        if (input[1] <= 13.5) {
                            if (input[4] <= 2.833333373069763) {
                                if (input[4] <= 2.083333373069763) {
                                    var0 = 0.31728638872766673;
                                } else {
                                    var0 = 0.44983478884213657;
                                }
                            } else {
                                if (input[4] <= 3.75) {
                                    var0 = 0.638002915331729;
                                } else {
                                    var0 = 0.918077373999692;
                                }
                            }
                        } else {
                            if (input[4] <= 2.833333373069763) {
                                if (input[4] <= 1.774999976158142) {
                                    var0 = 0.13785901307038934;
                                } else {
                                    var0 = 0.24747849636933403;
                                }
                            } else {
                                if (input[4] <= 4.0000001192092896) {
                                    var0 = 0.33256959169301603;
                                } else {
                                    var0 = 0.4822227226056518;
                                }
                            }
                        }
                    }
                } else {
                    if (input[4] <= 1.8166666626930237) {
                        if (input[1] <= 10.5) {
                            if (input[3] <= 1.8675727248191833) {
                                if (input[2] <= 8.0) {
                                    var0 = 0.450796631630169;
                                } else {
                                    var0 = 0.535130561050607;
                                }
                            } else {
                                if (input[4] <= 1.5833333134651184) {
                                    var0 = 0.7128548479997784;
                                } else {
                                    var0 = 0.9746581213151866;
                                }
                            }
                        } else {
                            if (input[3] <= 2.069778323173523) {
                                if (input[2] <= 6.5) {
                                    var0 = 0.2685526946120158;
                                } else {
                                    var0 = 0.374233338596634;
                                }
                            } else {
                                if (input[1] <= 15.0) {
                                    var0 = 0.6517970269713034;
                                } else {
                                    var0 = 0.3979405020478881;
                                }
                            }
                        }
                    } else {
                        if (input[1] <= 16.5) {
                            if (input[3] <= 1.602658212184906) {
                                if (input[4] <= 2.3666666746139526) {
                                    var0 = 0.6079114147940229;
                                } else {
                                    var0 = 0.8761112723417458;
                                }
                            } else {
                                if (input[4] <= 2.083333373069763) {
                                    var0 = 0.8088110022914136;
                                } else {
                                    var0 = 0.9606271638036888;
                                }
                            }
                        } else {
                            if (input[4] <= 2.225000023841858) {
                                if (input[3] <= 2.053071141242981) {
                                    var0 = 0.3524191375784728;
                                } else {
                                    var0 = 0.5641468777051162;
                                }
                            } else {
                                if (input[3] <= 1.743959665298462) {
                                    var0 = 0.6010866258067872;
                                } else {
                                    var0 = 0.8441888573676543;
                                }
                            }
                        }
                    }
                }
            }
        }
    } else {
        if (input[4] <= 0.36666667461395264) {
            if (input[1] <= 7.5) {
                if (input[3] <= 10.576960563659668) {
                    if (input[1] <= 4.5) {
                        if (input[1] <= 2.5) {
                            if (input[3] <= 4.2264814376831055) {
                                if (input[1] <= 1.5) {
                                    var0 = 1.0;
                                } else {
                                    var0 = 0.7118163505373605;
                                }
                            } else {
                                if (input[3] <= 5.575033903121948) {
                                    var0 = 0.9544239655346634;
                                } else {
                                    var0 = 1.0;
                                }
                            }
                        } else {
                            if (input[3] <= 5.763944387435913) {
                                if (input[4] <= 0.22500000149011612) {
                                    var0 = 0.28872501609087053;
                                } else {
                                    var0 = 0.61387228997507;
                                }
                            } else {
                                if (input[4] <= 0.2916666716337204) {
                                    var0 = 0.7148611356995146;
                                } else {
                                    var0 = 0.9815408822329215;
                                }
                            }
                        }
                    } else {
                        if (input[3] <= 5.598157644271851) {
                            if (input[4] <= 0.2916666716337204) {
                                if (input[3] <= 5.080133676528931) {
                                    var0 = 0.1281993552928317;
                                } else {
                                    var0 = 0.2523288059767437;
                                }
                            } else {
                                if (input[3] <= 3.809091091156006) {
                                    var0 = 0.2339737526072998;
                                } else {
                                    var0 = 0.479790967323497;
                                }
                            }
                        } else {
                            if (input[2] <= 1.5) {
                                if (input[4] <= 0.22500000149011612) {
                                    var0 = 0.3374247668141037;
                                } else {
                                    var0 = 0.5151299757732171;
                                }
                            } else {
                                if (input[3] <= 7.211583137512207) {
                                    var0 = 0.708201691394224;
                                } else {
                                    var0 = 1.0;
                                }
                            }
                        }
                    }
                } else {
                    if (input[4] <= 0.18333333730697632) {
                        if (input[3] <= 18.839289665222168) {
                            if (input[1] <= 4.5) {
                                var0 = 1.0;
                            } else {
                                if (input[3] <= 12.562470436096191) {
                                    var0 = 0.4716418321887135;
                                } else {
                                    var0 = 0.7094262841278085;
                                }
                            }
                        } else {
                            if (input[1] <= 6.5) {
                                if (input[3] <= 19.522109031677246) {
                                    var0 = 0.9506899818360811;
                                } else {
                                    var0 = 0.999769943321415;
                                }
                            } else {
                                if (input[3] <= 22.762093544006348) {
                                    var0 = 0.8675599987072569;
                                } else {
                                    var0 = 0.9822142179962593;
                                }
                            }
                        }
                    } else {
                        if (input[3] <= 13.151275634765625) {
                            if (input[1] <= 4.5) {
                                if (input[1] <= 3.5) {
                                    var0 = 1.0;
                                } else {
                                    var0 = 0.9622377371127583;
                                }
                            } else {
                                if (input[4] <= 0.2916666716337204) {
                                    var0 = 0.7719409411847998;
                                } else {
                                    var0 = 0.952969028367195;
                                }
                            }
                        } else {
                            if (input[3] <= 14.687588691711426) {
                                if (input[1] <= 5.5) {
                                    var0 = 1.0;
                                } else {
                                    var0 = 0.9079551940159254;
                                }
                            } else {
                                if (input[3] <= 17.307600021362305) {
                                    var0 = 0.994473812171928;
                                } else {
                                    var0 = 0.9996340689824035;
                                }
                            }
                        }
                    }
                }
            } else {
                if (input[3] <= 16.21734046936035) {
                    if (input[3] <= 9.359038829803467) {
                        if (input[4] <= 0.2916666716337204) {
                            if (input[3] <= 7.482289791107178) {
                                if (input[1] <= 12.5) {
                                    var0 = 0.11125710885735439;
                                } else {
                                    var0 = 0.05992938208038211;
                                }
                            } else {
                                if (input[1] <= 10.5) {
                                    var0 = 0.2528918078809159;
                                } else {
                                    var0 = 0.13668039093128834;
                                }
                            }
                        } else {
                            if (input[3] <= 7.383290767669678) {
                                if (input[3] <= 3.0371651649475098) {
                                    var0 = 0.0314615929721173;
                                } else {
                                    var0 = 0.18417271850321815;
                                }
                            } else {
                                if (input[1] <= 15.5) {
                                    var0 = 0.3701379284463311;
                                } else {
                                    var0 = 0.22363418552177788;
                                }
                            }
                        }
                    } else {
                        if (input[2] <= 1.5) {
                            if (input[1] <= 13.5) {
                                if (input[0] <= 4.5) {
                                    var0 = 0.48410526062810816;
                                } else {
                                    var0 = 0.2774831725960618;
                                }
                            } else {
                                if (input[4] <= 0.2916666716337204) {
                                    var0 = 0.19995949400448407;
                                } else {
                                    var0 = 0.3173539284270224;
                                }
                            }
                        } else {
                            if (input[1] <= 11.5) {
                                if (input[3] <= 12.809438705444336) {
                                    var0 = 0.8313482071302297;
                                } else {
                                    var0 = 0.9366733791462445;
                                }
                            } else {
                                if (input[3] <= 14.772260665893555) {
                                    var0 = 0.5129976705648503;
                                } else {
                                    var0 = 0.7456158305223981;
                                }
                            }
                        }
                    }
                } else {
                    if (input[4] <= 0.2916666716337204) {
                        if (input[1] <= 14.5) {
                            if (input[3] <= 22.290477752685547) {
                                if (input[1] <= 10.5) {
                                    var0 = 0.647106849726859;
                                } else {
                                    var0 = 0.46770157070742213;
                                }
                            } else {
                                if (input[1] <= 10.5) {
                                    var0 = 0.911255098794487;
                                } else {
                                    var0 = 0.6837398550502486;
                                }
                            }
                        } else {
                            if (input[4] <= 0.22500000149011612) {
                                if (input[3] <= 26.078969955444336) {
                                    var0 = 0.2850551365403397;
                                } else {
                                    var0 = 0.4282164579787268;
                                }
                            } else {
                                if (input[3] <= 23.63707160949707) {
                                    var0 = 0.40841032023767;
                                } else {
                                    var0 = 0.5610416591207991;
                                }
                            }
                        }
                    } else {
                        if (input[1] <= 16.5) {
                            if (input[1] <= 11.5) {
                                if (input[1] <= 10.5) {
                                    var0 = 1.0;
                                } else {
                                    var0 = 0.9897763630358875;
                                }
                            } else {
                                if (input[3] <= 22.48730754852295) {
                                    var0 = 0.7958018436744806;
                                } else {
                                    var0 = 0.9537457023122456;
                                }
                            }
                        } else {
                            if (input[0] <= 4.5) {
                                if (input[3] <= 22.2083797454834) {
                                    var0 = 0.4349394535346073;
                                } else {
                                    var0 = 0.6768799627711971;
                                }
                            } else {
                                if (input[3] <= 19.76276683807373) {
                                    var0 = 0.6391341046496548;
                                } else {
                                    var0 = 0.8847090062871303;
                                }
                            }
                        }
                    }
                }
            }
        } else {
            if (input[3] <= 5.048815488815308) {
                if (input[4] <= 1.0833333134651184) {
                    if (input[1] <= 10.5) {
                        if (input[1] <= 5.5) {
                            if (input[4] <= 0.45000000298023224) {
                                if (input[3] <= 3.731184959411621) {
                                    var0 = 0.5506965883887867;
                                } else {
                                    var0 = 0.7099235564690602;
                                }
                            } else {
                                if (input[3] <= 2.686926245689392) {
                                    var0 = 0.8324652265130021;
                                } else {
                                    var0 = 0.9971778582918654;
                                }
                            }
                        } else {
                            if (input[4] <= 0.7083333432674408) {
                                if (input[3] <= 3.508078932762146) {
                                    var0 = 0.42533365967926573;
                                } else {
                                    var0 = 0.6463169826725527;
                                }
                            } else {
                                if (input[3] <= 3.165298819541931) {
                                    var0 = 0.7180326849358729;
                                } else {
                                    var0 = 0.9396468229240869;
                                }
                            }
                        }
                    } else {
                        if (input[4] <= 0.7083333432674408) {
                            if (input[4] <= 0.550000011920929) {
                                if (input[3] <= 4.553777694702148) {
                                    var0 = 0.17533348027840315;
                                } else {
                                    var0 = 0.2981515432845069;
                                }
                            } else {
                                if (input[1] <= 14.5) {
                                    var0 = 0.4185776292283067;
                                } else {
                                    var0 = 0.2667471655437686;
                                }
                            }
                        } else {
                            if (input[3] <= 4.740439176559448) {
                                if (input[1] <= 12.5) {
                                    var0 = 0.609546036351058;
                                } else {
                                    var0 = 0.39491140610786024;
                                }
                            } else {
                                if (input[1] <= 13.0) {
                                    var0 = 0.927442464929187;
                                } else {
                                    var0 = 0.6524197980938401;
                                }
                            }
                        }
                    }
                } else {
                    if (input[4] <= 1.7083333134651184) {
                        if (input[1] <= 12.5) {
                            if (input[3] <= 2.705575942993164) {
                                if (input[3] <= 2.6618196964263916) {
                                    var0 = 0.9747008241016311;
                                } else {
                                    var0 = 0.7510375070632525;
                                }
                            } else {
                                if (input[1] <= 11.5) {
                                    var0 = 0.9957389656296839;
                                } else {
                                    var0 = 0.9322213916688453;
                                }
                            }
                        } else {
                            if (input[3] <= 3.4483025074005127) {
                                if (input[1] <= 16.5) {
                                    var0 = 0.6542545026386366;
                                } else {
                                    var0 = 0.44242922409965596;
                                }
                            } else {
                                if (input[1] <= 15.5) {
                                    var0 = 0.9231143574278003;
                                } else {
                                    var0 = 0.7389560502734712;
                                }
                            }
                        }
                    } else {
                        if (input[1] <= 15.5) {
                            if (input[1] <= 13.5) {
                                var0 = 1.0;
                            } else {
                                if (input[3] <= 3.263413190841675) {
                                    var0 = 0.9497996352452776;
                                } else {
                                    var0 = 1.0;
                                }
                            }
                        } else {
                            if (input[4] <= 2.083333373069763) {
                                if (input[3] <= 3.2610021829605103) {
                                    var0 = 0.7140295378896266;
                                } else {
                                    var0 = 0.971449716866946;
                                }
                            } else {
                                if (input[2] <= 9.5) {
                                    var0 = 0.9561480678365177;
                                } else {
                                    var0 = 0.9965288353950749;
                                }
                            }
                        }
                    }
                }
            } else {
                if (input[4] <= 0.7083333432674408) {
                    if (input[3] <= 8.334617614746094) {
                        if (input[1] <= 10.5) {
                            if (input[1] <= 7.5) {
                                if (input[4] <= 0.45000000298023224) {
                                    var0 = 0.9946045998032911;
                                } else {
                                    var0 = 0.9997836986900897;
                                }
                            } else {
                                if (input[4] <= 0.550000011920929) {
                                    var0 = 0.7463233276850976;
                                } else {
                                    var0 = 0.9357077526215782;
                                }
                            }
                        } else {
                            if (input[1] <= 14.5) {
                                if (input[2] <= 3.5) {
                                    var0 = 0.5896755289229723;
                                } else {
                                    var0 = 0.8680837144504207;
                                }
                            } else {
                                if (input[2] <= 2.5) {
                                    var0 = 0.3376147483494573;
                                } else {
                                    var0 = 0.50100392440193;
                                }
                            }
                        }
                    } else {
                        if (input[3] <= 12.078513145446777) {
                            if (input[1] <= 14.5) {
                                if (input[1] <= 11.5) {
                                    var0 = 0.9971936028163292;
                                } else {
                                    var0 = 0.8847688947326219;
                                }
                            } else {
                                if (input[2] <= 2.5) {
                                    var0 = 0.5656756344588685;
                                } else {
                                    var0 = 0.854843894426959;
                                }
                            }
                        } else {
                            if (input[1] <= 17.5) {
                                if (input[3] <= 13.347896099090576) {
                                    var0 = 0.9803255806731414;
                                } else {
                                    var0 = 0.999046204149707;
                                }
                            } else {
                                if (input[3] <= 17.332602500915527) {
                                    var0 = 0.836068281429315;
                                } else {
                                    var0 = 0.9927983396213099;
                                }
                            }
                        }
                    }
                } else {
                    if (input[3] <= 6.83042049407959) {
                        if (input[4] <= 1.0833333134651184) {
                            if (input[1] <= 14.5) {
                                if (input[1] <= 11.5) {
                                    var0 = 1.0;
                                } else {
                                    var0 = 0.8951484584233178;
                                }
                            } else {
                                if (input[3] <= 5.824796199798584) {
                                    var0 = 0.6029962661216239;
                                } else {
                                    var0 = 0.7444950393032385;
                                }
                            }
                        } else {
                            if (input[4] <= 1.2916666865348816) {
                                if (input[1] <= 18.5) {
                                    var0 = 0.9946438528435982;
                                } else {
                                    var0 = 0.7485094902628955;
                                }
                            } else {
                                if (input[3] <= 5.12964653968811) {
                                    var0 = 0.9877654132715256;
                                } else {
                                    var0 = 0.9998767014257218;
                                }
                            }
                        }
                    } else {
                        if (input[3] <= 7.914615869522095) {
                            if (input[4] <= 1.0833333134651184) {
                                if (input[1] <= 17.0) {
                                    var0 = 0.9899791744678783;
                                } else {
                                    var0 = 0.8188268198203961;
                                }
                            } else {
                                if (input[4] <= 1.2916666865348816) {
                                    var0 = 0.982401745301371;
                                } else {
                                    var0 = 1.0;
                                }
                            }
                        } else {
                            if (input[4] <= 0.9166666567325592) {
                                if (input[3] <= 10.578733921051025) {
                                    var0 = 0.9899715821068426;
                                } else {
                                    var0 = 1.0;
                                }
                            } else {
                                if (input[3] <= 9.36198377609253) {
                                    var0 = 0.9997292423063671;
                                } else {
                                    var0 = 1.0;
                                }
                            }
                        }
                    }
                }
            }
        }
    }
    return var0;
}


export { predictDanger };
